digraph Tree {
node [shape=box, style="filled, rounded", color="black", fontname="helvetica"] ;
edge [fontname="helvetica"] ;
0 [label="sepal length (cm) <= 5.45\ngini = 0.66\nsamples = 86\nvalue = [53, 44, 53]\nclass = setosa", fillcolor="#ffffff"] ;
1 [label="petal width (cm) <= 0.8\ngini = 0.19\nsamples = 32\nvalue = [50, 6, 0]\nclass = setosa", fillcolor="#e89051"] ;
0 -> 1 [labeldistance=2.5, labelangle=45, headlabel="True"] ;
2 [label="gini = 0.0\nsamples = 29\nvalue = [50, 0, 0]\nclass = setosa", fillcolor="#e58139"] ;
1 -> 2 ;
3 [label="gini = 0.0\nsamples = 3\nvalue = [0, 6, 0]\nclass = versicolor", fillcolor="#39e581"] ;
1 -> 3 ;
4 [label="petal width (cm) <= 1.7\ngini = 0.52\nsamples = 54\nvalue = [3, 38, 53]\nclass = virginica", fillcolor="#ddcaf8"] ;
0 -> 4 [labeldistance=2.5, labelangle=-45, headlabel="False"] ;
5 [label="sepal width (cm) <= 3.45\ngini = 0.3\nsamples = 31\nvalue = [3, 38, 5]\nclass = versicolor", fillcolor="#60ea9a"] ;
4 -> 5 ;
6 [label="petal length (cm) <= 4.95\ngini = 0.21\nsamples = 29\nvalue = [0, 38, 5]\nclass = versicolor", fillcolor="#53e892"] ;
5 -> 6 ;
7 [label="gini = 0.0\nsamples = 24\nvalue = [0, 37, 0]\nclass = versicolor", fillcolor="#39e581"] ;
6 -> 7 ;
8 [label="petal width (cm) <= 1.55\ngini = 0.28\nsamples = 5\nvalue = [0, 1, 5]\nclass = virginica", fillcolor="#9a61ea"] ;
6 -> 8 ;
9 [label="gini = 0.0\nsamples = 3\nvalue = [0, 0, 4]\nclass = virginica", fillcolor="#8139e5"] ;
8 -> 9 ;
10 [label="sepal width (cm) <= 2.85\ngini = 0.5\nsamples = 2\nvalue = [0, 1, 1]\nclass = versicolor", fillcolor="#ffffff"] ;
8 -> 10 ;
11 [label="gini = 0.0\nsamples = 1\nvalue = [0, 1, 0]\nclass = versicolor", fillcolor="#39e581"] ;
10 -> 11 ;
12 [label="gini = 0.0\nsamples = 1\nvalue = [0, 0, 1]\nclass = virginica", fillcolor="#8139e5"] ;
10 -> 12 ;
13 [label="gini = 0.0\nsamples = 2\nvalue = [3, 0, 0]\nclass = setosa", fillcolor="#e58139"] ;
5 -> 13 ;
14 [label="gini = 0.0\nsamples = 23\nvalue = [0, 0, 48]\nclass = virginica", fillcolor="#8139e5"] ;
4 -> 14 ;
}